([9, 18, 9, 1], [array([[-2.0130765 ,  0.28265067,  0.75164801, -0.58932347, -0.23653341,
        -0.09229725, -0.67999782,  1.16698996, -0.75761315],
       [-3.88424542, -0.13627054, -0.26934042,  0.51992972,  0.31577111,
         0.47837647,  0.56581537,  0.79387091, -2.19499891],
       [-1.59710529, -0.42323864, -0.16738768,  0.04886577,  4.55815149,
         6.22186825,  0.05097731,  0.31129133, -0.30455514],
       [ 1.8219369 , -1.41269817,  0.26563807,  0.23753456, -0.43452463,
         0.21406911,  0.5876685 ,  0.40893045,  0.27034845],
       [-1.46984189,  0.19384749,  0.4058406 ,  2.48720992, -1.28274042,
        -1.43403827,  1.97922099, -2.78824683, -0.73613878],
       [-3.27088628, -0.93324276, -0.47977168, -0.05617174,  2.10046098,
         0.44132241,  0.15017881, -2.85034928,  1.62151015],
       [-0.110931  ,  1.39795572, -1.90350715,  1.33267289, -0.41688115,
        -1.95152736,  2.17091006, -0.71249852,  0.31763441],
       [-0.05702249, -2.64572042, -0.21226288, -0.04980573, -4.76883746,
        -0.92959448,  2.23585472, -0.61701511, -0.67106622],
       [ 3.1660571 ,  0.34118642,  0.30493284, -0.98931997,  2.65394773,
         0.66151872, -1.58430437, -0.36961195, -1.68673016],
       [ 2.21773411,  1.50118918, -0.76344986,  1.96058623, -0.75617509,
         1.48405478, -2.14837417,  0.22642323, -1.39615981],
       [ 8.97953147, -0.27120294, -0.18939145, -0.3399416 , -1.59777605,
        -0.18392438,  0.14646315,  0.21206149,  0.79623428],
       [ 0.95055969, -0.91076492, -0.92723875, -1.19113812, -0.13264141,
        -1.24882681,  0.52592525,  1.89108845,  1.03940741],
       [ 6.6184622 ,  0.64818779,  0.1159657 ,  0.35091245, -0.16506403,
        -0.72639956, -0.1685841 , -1.27790035, -0.18815408],
       [ 0.30211823,  1.31728431, -1.98193953, -0.13145622,  0.09845957,
        -1.55299327, -0.84118858,  0.28852294, -0.21738356],
       [-2.90662837, -0.07522355,  0.72422867,  2.84323786,  0.46443794,
        -0.94385014,  0.25760498, -0.1356217 ,  1.00674501],
       [-1.27035852,  1.40174231, -0.49576688, -0.84570221,  0.1016608 ,
        -0.54439224, -1.2486801 ,  0.40823788,  1.04336397],
       [ 2.44101221,  0.54148293,  0.45527233,  0.23639823, -6.78831254,
         0.41945038,  0.16738416,  0.61296983,  1.63052764],
       [ 0.95502814, -1.24364185,  0.90321886, -0.03953413, -1.46878765,
         2.05064055,  0.44997486, -1.09017128, -0.50410091]]), array([[-0.49787715, -0.53115536,  0.80266117, -1.24448896,  0.98934821,
         2.48250286, -1.25957121, -0.73403165,  0.99196318,  0.26385459,
        -0.85038369,  0.13099434, -0.25032354,  0.78932698, -0.69411124,
        -0.06581826,  0.01762454,  0.61367005],
       [-0.85836642, -3.19959568, -4.03984562,  2.53491452, -2.50944597,
        -3.17976733,  1.47786804,  2.45166871,  1.57243001,  0.4502763 ,
         4.57304047,  1.04526049,  2.62507831, -1.44982277, -1.73576651,
         0.11749838,  2.37508275, -2.36157451],
       [ 0.71307536, -0.76208799, -0.84757888, -0.35942119, -0.06803858,
        -0.5592455 ,  1.18439242,  0.42767693, -0.53666695, -1.01596301,
         1.67552951,  1.41302544, -1.97840839, -1.00574371, -0.81709528,
        -1.96625014,  3.04840145,  2.30825844],
       [-1.47884282,  0.62629686, -0.24828716,  0.90187404,  1.31736428,
         1.65280672,  0.10631632, -0.43845553,  1.11088932,  2.03767273,
        -0.68852763, -0.4165064 , -0.03818833, -1.24019616, -0.18400276,
         0.93839398,  0.85639679,  0.52642525],
       [-1.79047262, -1.34551299, -2.56492709,  0.00940625, -2.2239388 ,
        -3.46706992, -0.11855879,  1.84369296, -0.3919816 ,  0.96562359,
         3.30013516, -0.59079076,  1.97264225, -0.61894994, -0.85685185,
        -1.70835914,  3.9358596 , -1.15567445],
       [-1.18042491,  0.50642783, -0.2647089 , -0.11149739,  1.05122624,
        -2.10887097,  0.49750752, -1.47248749, -1.98471565,  0.05156042,
        -0.65453824, -2.57018756, -0.07446221, -0.07624069,  1.34923665,
         0.80196317, -0.17008239, -1.57022035],
       [ 0.06343611,  0.76823248,  2.82767415,  1.19515383,  0.50456719,
         0.95620046, -1.05561634, -0.70785712,  0.99938561,  0.42821655,
        -2.17798033, -0.28380302, -0.60990329,  0.67574374,  0.2152682 ,
         2.36597655, -3.05557374, -0.74005746],
       [ 0.88588752, -0.73906872, -0.87870324, -1.76271121,  0.60867929,
         1.42738318, -0.19226317, -1.43972398, -0.76667009, -1.65297714,
        -0.52299951,  0.58361804, -1.62748847,  1.9719286 , -0.72531589,
         0.20249848,  0.30804808,  0.94765267],
       [-2.38716374, -0.44870739, -0.25703291,  1.30193717, -1.40703213,
        -0.3473728 ,  0.63230064, -0.27186855,  1.95241579, -0.84401333,
        -0.54635548, -1.50933449,  1.05982748,  0.60417205,  0.27355514,
         0.27248786, -1.03862427,  1.63592706]]), array([[-0.94940068, -6.47367816, -3.92244791, -1.88733136, -9.06401979,
        -1.51174907,  3.91460286, -3.86765505,  2.3600392 ]])], [array([[ 1.919457  ],
       [ 2.78016772],
       [-0.97642372],
       [-3.1820194 ],
       [-0.29810708],
       [ 1.703952  ],
       [ 0.24465633],
       [-0.38131415],
       [-0.77573058],
       [-1.47026746],
       [-5.44247195],
       [ 1.26046972],
       [ 0.64950613],
       [-1.37761942],
       [ 1.59116065],
       [ 0.47870199],
       [-0.74834443],
       [ 2.02738683]]), array([[-0.38023534],
       [-0.84508485],
       [-1.69052684],
       [ 0.83664652],
       [-0.65179194],
       [ 0.26160545],
       [ 0.1161793 ],
       [ 0.68611836],
       [ 0.90093502]]), array([[-2.95073276]])])
