([9, 18, 9, 1], [array([[ -5.28692326e-02,  -3.28063146e-01,   2.16128396e+00,
          2.91290479e-01,  -8.01612411e-01,   1.03942968e+00,
         -4.57662944e-02,   1.47145396e+00,   4.88771185e-01],
       [ -1.01692579e+00,  -8.44592867e-01,  -2.68914115e-01,
          1.78992347e+00,   2.39456349e+00,  -4.42955919e-01,
          3.13780497e-01,   4.56022001e-01,  -7.38870721e-02],
       [ -1.38331332e+00,  -2.96043181e-02,  -2.45615217e+00,
         -1.47341684e+00,   5.33673903e-01,   4.15736364e-02,
          3.62442726e-01,   1.11191954e-01,   1.48595675e-01],
       [  5.45956780e+00,  -9.37514271e-01,  -9.70185953e-02,
         -1.29219782e+00,  -5.75588238e-02,  -2.65133631e-01,
         -1.24822019e-01,  -5.85760870e-02,   3.35813761e-01],
       [  2.89882301e-01,  -7.10724136e-01,   4.16337468e-01,
         -1.15780313e+00,  -1.29573142e+00,  -2.22424374e-01,
          5.04585633e-01,   8.77488617e-01,  -1.98897932e+00],
       [  5.89154111e-01,  -1.42666849e-01,   4.80507000e-02,
         -1.61223248e+00,   7.45292377e-01,   2.01406895e+00,
          1.07378303e+00,   1.63147739e+00,  -2.90263013e-01],
       [  2.42086695e-01,  -6.91855438e-01,  -1.03080328e+00,
         -3.09913441e-01,  -9.13929852e-01,  -7.66726032e-01,
         -8.11840642e-01,  -4.81927660e-01,  -3.34176685e-01],
       [  1.02824870e+00,  -2.04097261e+00,  -3.93173000e-01,
         -2.21220636e+00,   9.80947090e-01,   1.09019001e-02,
         -2.47703636e+00,  -2.56795634e-01,   6.79142483e-01],
       [  4.16792155e+00,   7.57548852e-01,  -1.17837966e+00,
         -3.12873768e-03,   4.77241914e-02,  -2.71495797e-02,
          2.31121388e-01,   4.66310062e-01,   2.54209617e-01],
       [ -8.79362970e-01,  -9.31612087e-01,  -7.56125576e-01,
         -9.72137651e-02,  -8.62092585e-01,   1.31978619e+00,
         -1.48985106e+00,  -2.31573676e-02,  -7.60931056e-01],
       [  4.73042970e-01,   3.07230032e-01,   6.99232808e-01,
         -1.30129769e+00,  -1.16054676e+00,  -6.93401423e-01,
          5.40935926e-01,  -4.71342285e-01,   6.12728149e-01],
       [  9.50900267e-01,  -9.53828097e-01,  -6.61551165e-01,
         -2.13102888e+00,  -4.12532245e-01,   7.05239093e-01,
         -1.12395969e+00,   6.16284135e-01,   8.31777209e-01],
       [ -4.88964662e-02,  -7.90444022e-01,   6.09952728e-01,
         -3.95505285e-01,  -1.04130534e+00,   1.94079242e+00,
         -6.75956612e-01,  -8.38725805e-01,   7.53853326e-01],
       [ -1.53451070e+00,  -3.36250304e-01,  -9.78201740e-01,
         -2.91634520e-01,  -2.45514055e-01,   1.80180185e+00,
          8.96027680e-01,  -4.10301475e-01,  -6.20849487e-01],
       [  1.13677474e+00,  -4.40889765e-01,  -9.31336823e-01,
         -7.60840510e-02,  -1.05010808e+00,   2.66015804e-01,
          2.38625212e+00,  -6.60788537e-01,   4.40383413e-01],
       [  1.17179190e+00,  -2.12834739e-01,   1.72582607e+00,
          2.50893868e-01,   2.47050373e-01,  -3.81436399e-01,
         -1.39767025e+00,  -6.93421718e-01,  -6.05029447e-01],
       [  8.64419941e-03,  -9.95983433e-01,   8.18439971e-01,
          1.86860580e-01,   6.78756440e-01,   5.18311353e-01,
          9.02561758e-01,  -4.13810320e-01,  -2.41628640e+00],
       [  5.68190553e-01,  -5.54552884e-03,   1.86517042e+00,
         -5.84135177e-01,   5.34421000e-01,   2.59229840e-01,
         -5.87748116e-01,  -3.41707320e-01,   1.18754034e-01]]), array([[-0.85539789,  4.19977258,  1.74993086, -3.48919421, -0.93969096,
         0.96207836, -0.23442137, -1.97769596, -3.34466995,  0.36351333,
        -0.46512633,  0.3859544 ,  0.35011384,  2.1420021 , -1.30171008,
        -0.07610859,  0.02168493, -1.17162995],
       [ 0.74025498, -1.95757137, -0.07789016, -0.39100684,  0.88452907,
        -1.63020135,  0.34880768,  0.38632682,  0.05066517,  0.0673603 ,
        -0.15286648, -1.50158822, -0.71028625, -1.92387955,  0.94781561,
         0.74905463, -1.68884424,  0.97173145],
       [-0.35212476, -1.80788042, -0.46985023,  0.91191897,  0.21414261,
        -1.20045386,  0.77255882,  0.34882045, -0.68946854, -1.23389704,
         0.59071529,  0.96025746, -1.51282635, -0.32674402, -0.34131361,
         0.09368806, -1.00941896,  2.06738988],
       [ 0.77972758,  1.31733212, -1.72511442,  3.68325412, -0.16468405,
        -1.40339082,  0.82933534,  0.11410707, -0.17780733, -0.11500608,
        -0.55899487,  0.66171952,  0.21042046, -1.31088323,  0.71954465,
         1.20891223, -2.88544573,  1.16301523],
       [ 0.57601216,  0.55157738,  1.30640334, -0.1566189 , -0.78037858,
         0.30958575, -0.13787546,  0.62673503, -2.51027223, -0.49004038,
         2.77919737,  0.35919557,  0.83054139,  0.12001244, -0.60602356,
         0.81281879,  0.4906962 , -0.69703047],
       [ 0.62305535,  0.97923014, -1.77110093, -0.64762592,  0.61952968,
         1.85386995, -0.41589052,  0.87789796,  1.55072605,  0.33130791,
        -0.54511926,  0.74454213, -0.13107623,  0.19356611, -0.67980731,
         0.96644932, -0.16301618,  0.19073456],
       [ 0.67092458,  2.74429706,  0.79435852, -1.63150715, -0.45886396,
         0.73438978, -0.75771045, -1.67901481,  2.11621885,  0.72333058,
         1.17429974,  0.23162907,  1.82181387,  0.47759166,  0.11178655,
         0.02045269, -1.0084219 , -0.75839686],
       [ 0.33866852, -0.77083286,  0.08486549, -0.56764825,  0.99869761,
        -1.11063947,  0.32564568,  1.45902089,  1.15910489, -0.55973508,
         1.56626183,  0.18709191,  0.37695742,  0.02232176, -1.62645839,
         0.70256394,  0.50196258,  0.79203866],
       [-1.77615512,  0.6702364 , -0.40336819, -0.14275188, -1.86351715,
         0.25726434, -0.51059082,  1.44853332,  2.20631716,  0.82902425,
        -0.402413  , -1.0949507 , -1.8795874 , -0.25221717,  1.13005279,
         1.44497063, -2.28501952,  0.68028433]]), array([[ 4.41397944,  0.20164419,  2.04248306, -3.05947038,  0.98851729,
        -1.96410204, -3.4487173 ,  0.47749483, -3.1773604 ]])], [array([[ 0.21763032],
       [-0.42379355],
       [ 1.710753  ],
       [ 0.22141585],
       [-0.06431398],
       [-0.16855556],
       [-0.91453355],
       [ 0.83496326],
       [-1.38910806],
       [-1.30773018],
       [-0.22656239],
       [ 0.04348175],
       [-1.9795296 ],
       [ 0.07561971],
       [ 1.23441919],
       [-1.72469936],
       [ 0.89167617],
       [ 1.72878477]]), array([[ 0.26809866],
       [-0.66834597],
       [ 0.40494019],
       [ 0.0052204 ],
       [ 0.19766148],
       [-1.97636789],
       [-1.00376721],
       [ 0.2111272 ],
       [-0.96400148]]), array([[ 1.25776707]])])